digraph Tree {
node [shape=box, style="filled, rounded", color="black", fontname="helvetica"] ;
edge [fontname="helvetica"] ;
0 [label=<Cart Abandonment_No &le; 0.5<br/>gini = 0.43<br/>samples = 400<br/>value = [275, 125]<br/>class = 0>, fillcolor="#f1ba93"] ;
1 [label=<gini = 0.0<br/>samples = 125<br/>value = [0, 125]<br/>class = 1>, fillcolor="#399de5"] ;
0 -> 1 [labeldistance=2.5, labelangle=45, headlabel="True"] ;
2 [label=<gini = 0.0<br/>samples = 275<br/>value = [275, 0]<br/>class = 0>, fillcolor="#e58139"] ;
0 -> 2 [labeldistance=2.5, labelangle=-45, headlabel="False"] ;
}
